{
  "a": {
    "angles": [
      47.73626373626374,
      80.7032967032967,
      -74.98901098901099,
      17.406593406593405,
      0.3516483516483517,
      0.3516483516483517
    ],
    "unit": "degrees"
  },
  "b": {
    "angles": [
      33.582417582417584,
      42.81318681318682,
      -20.483516483516482,
      28.13186813186813,
      -0.26373626373626374,
      0.43956043956043955
    ],
    "unit": "degrees"
  },
  "c": {
    "angles": [
      23.12087912087912,
      32.79120879120879,
      -7.472527472527473,
      28.13186813186813,
      -0.17582417582417584,
      0.43956043956043955
    ],
    "unit": "degrees"
  },
  "d": {
    "angles": [
      11.604395604395604,
      76.74725274725274,
      -89.23076923076923,
      75.86813186813187,
      0.3516483516483517,
      0.0
    ],
    "unit": "degrees"
  },
  "e": {
    "angles": [
      0.26373626373626374,
      76.48351648351648,
      -89.23076923076923,
      75.86813186813187,
      0.3516483516483517,
      0.0
    ],
    "unit": "degrees"
  },
  "f": {
    "angles": [
      -14.153846153846155,
      28.65934065934066,
      3.8681318681318686,
      12.131868131868131,
      0.0,
      0.43956043956043955
    ],
    "unit": "degrees"
  },
  "g": {
    "angles": [
      -23.736263736263737,
      37.18681318681319,
      -11.692307692307692,
      12.571428571428571,
      0.08791208791208792,
      0.43956043956043955
    ],
    "unit": "degrees"
  },
  "h": {
    "angles": [
      -32.43956043956044,
      54.94505494505494,
      -38.59340659340659,
      12.923076923076922,
      0.17582417582417584,
      0.43956043956043955
    ],
    "unit": "degrees"
  },
  "i": {
    "angles": [
      50.02197802197802,
      37.098901098901095,
      -8.615384615384617,
      12.923076923076922,
      -0.3516483516483517,
      0.43956043956043955
    ],
    "unit": "degrees"
  },
  "j": {
    "angles": [
      42.9010989010989,
      23.12087912087912,
      2.989010989010989,
      31.296703296703296,
      -0.08791208791208792,
      0.5274725274725275
    ],
    "unit": "degrees"
  },
  "k": {
    "angles": [
      30.15384615384615,
      11.428571428571429,
      18.98901098901099,
      31.296703296703296,
      -0.08791208791208792,
      0.5274725274725275
    ],
    "unit": "degrees"
  },
  "l": {
    "angles": [
      15.120879120879122,
      4.571428571428571,
      31.824175824175825,
      25.582417582417584,
      -0.26373626373626374,
      0.5274725274725275
    ],
    "unit": "degrees"
  },
  "m": {
    "angles": [
      -4.835164835164835,
      -1.7582417582417582,
      32.35164835164835,
      26.461538461538463,
      -0.5274725274725275,
      0.5274725274725275
    ],
    "unit": "degrees"
  },
  "n": {
    "angles": [
      -20.307692307692307,
      5.8901098901098905,
      23.560439560439562,
      26.373626373626376,
      -0.5274725274725275,
      0.5274725274725275
    ],
    "unit": "degrees"
  },
  "no": {
    "angles": [
      -19.692307692307693,
      66.02197802197803,
      -56.26373626373626,
      28.21978021978022,
      0.0,
      0.43956043956043955
    ],
    "unit": "degrees"
  },
  "o": {
    "angles": [
      -33.230769230769226,
      22.945054945054945,
      -1.7582417582417582,
      39.03296703296703,
      -0.6153846153846154,
      0.5274725274725275
    ],
    "unit": "degrees"
  },
  "p": {
    "angles": [
      -42.10989010989011,
      38.24175824175824,
      -18.9010989010989,
      30.505494505494504,
      -0.08791208791208792,
      0.5274725274725275
    ],
    "unit": "degrees"
  },
  "q": {
    "angles": [
      50.285714285714285,
      4.483516483516484,
      23.384615384615383,
      31.560439560439562,
      -0.6153846153846154,
      0.5274725274725275
    ],
    "unit": "degrees"
  },
  "r": {
    "angles": [
      34.46153846153847,
      -14.505494505494507,
      44.83516483516483,
      31.560439560439562,
      -0.6153846153846154,
      0.5274725274725275
    ],
    "unit": "degrees"
  },
  "s": {
    "angles": [
      16.175824175824175,
      -18.98901098901099,
      44.043956043956044,
      52.307692307692314,
      -0.7032967032967034,
      0.5274725274725275
    ],
    "unit": "degrees"
  },
  "t": {
    "angles": [
      -0.43956043956043955,
      10.10989010989011,
      18.813186813186814,
      71.56043956043956,
      0.0,
      -0.08791208791208792
    ],
    "unit": "degrees"
  },
  "u": {
    "angles": [
      -27.252747252747252,
      -1.4065934065934067,
      29.36263736263736,
      52.307692307692314,
      -0.08791208791208792,
      0.5274725274725275
    ],
    "unit": "degrees"
  },
  "v": {
    "angles": [
      -40.43956043956044,
      12.307692307692308,
      7.736263736263737,
      53.18681318681319,
      -0.3516483516483517,
      0.5274725274725275
    ],
    "unit": "degrees"
  },
  "w": {
    "angles": [
      49.67032967032967,
      -0.43956043956043955,
      31.120879120879117,
      70.24175824175825,
      -0.7032967032967034,
      0.5274725274725275
    ],
    "unit": "degrees"
  },
  "x": {
    "angles": [
      19.604395604395606,
      -31.032967032967033,
      57.23076923076923,
      70.24175824175825,
      -0.7032967032967034,
      0.08791208791208792
    ],
    "unit": "degrees"
  },
  "y": {
    "angles": [
      -13.714285714285715,
      -30.94505494505495,
      57.31868131868132,
      70.24175824175825,
      -0.7032967032967034,
      0.3516483516483517
    ],
    "unit": "degrees"
  },
  "yes": {
    "angles": [
      28.747252747252745,
      68.92307692307693,
      -65.05494505494507,
      28.483516483516485,
      -0.7032967032967034,
      0.3516483516483517
    ],
    "unit": "degrees"
  },
  "z": {
    "angles": [
      -40.26373626373627,
      -9.67032967032967,
      38.94505494505495,
      70.24175824175825,
      -0.6153846153846154,
      0.3516483516483517
    ],
    "unit": "degrees"
  }
}