{
  "a": {
    "angles": [
      37.8021978021978,
      52.13186813186813,
      -35.252747252747255,
      16.351648351648354,
      -0.7032967032967034,
      -0.26373626373626374
    ],
    "unit": "degrees"
  },
  "b": {
    "angles": [
      29.71428571428571,
      40.08791208791209,
      -17.67032967032967,
      16.439560439560438,
      -0.7912087912087912,
      -0.26373626373626374
    ],
    "unit": "degrees"
  },
  "c": {
    "angles": [
      20.483516483516482,
      27.516483516483518,
      0.17582417582417584,
      16.439560439560438,
      -0.7912087912087912,
      -0.26373626373626374
    ],
    "unit": "degrees"
  },
  "d": {
    "angles": [
      8.43956043956044,
      16.791208791208792,
      12.483516483516484,
      16.439560439560438,
      -0.7912087912087912,
      -0.26373626373626374
    ],
    "unit": "degrees"
  },
  "e": {
    "angles": [
      -6.5054945054945055,
      16.527472527472526,
      12.571428571428571,
      16.439560439560438,
      -0.7912087912087912,
      -0.26373626373626374
    ],
    "unit": "degrees"
  },
  "f": {
    "angles": [
      -18.98901098901099,
      27.340659340659343,
      -1.7582417582417582,
      16.439560439560438,
      -0.3516483516483517,
      -0.26373626373626374
    ],
    "unit": "degrees"
  },
  "g": {
    "angles": [
      -27.604395604395606,
      41.142857142857146,
      -16.175824175824175,
      16.0,
      -0.3516483516483517,
      -0.26373626373626374
    ],
    "unit": "degrees"
  },
  "h": {
    "angles": [
      -37.010989010989015,
      55.824175824175825,
      -37.18681318681319,
      15.912087912087912,
      -0.26373626373626374,
      -0.26373626373626374
    ],
    "unit": "degrees"
  },
  "i": {
    "angles": [
      47.64835164835165,
      41.142857142857146,
      -27.340659340659343,
      32.43956043956044,
      -0.8791208791208791,
      -0.26373626373626374
    ],
    "unit": "degrees"
  },
  "j": {
    "angles": [
      39.56043956043956,
      25.75824175824176,
      -3.692307692307692,
      32.52747252747253,
      -0.8791208791208791,
      -0.26373626373626374
    ],
    "unit": "degrees"
  },
  "k": {
    "angles": [
      28.21978021978022,
      10.285714285714286,
      15.648351648351648,
      32.175824175824175,
      -0.8791208791208791,
      -0.26373626373626374
    ],
    "unit": "degrees"
  },
  "l": {
    "angles": [
      14.065934065934066,
      4.835164835164835,
      23.824175824175825,
      32.61538461538461,
      -0.43956043956043955,
      -0.26373626373626374
    ],
    "unit": "degrees"
  },
  "m": {
    "angles": [
      -4.923076923076923,
      5.0989010989010985,
      23.912087912087912,
      32.61538461538461,
      -0.43956043956043955,
      -0.26373626373626374
    ],
    "unit": "degrees"
  },
  "n": {
    "angles": [
      -23.208791208791208,
      13.45054945054945,
      13.802197802197803,
      32.61538461538461,
      -0.3516483516483517,
      -0.26373626373626374
    ],
    "unit": "degrees"
  },
  "no": {
    "angles": [
      -25.582417582417584,
      59.340659340659336,
      -42.81318681318682,
      15.824175824175823,
      -0.7912087912087912,
      -0.26373626373626374
    ],
    "unit": "degrees"
  },
  "o": {
    "angles": [
      -35.604395604395606,
      24.175824175824175,
      -0.6153846153846154,
      32.61538461538461,
      -0.3516483516483517,
      -0.26373626373626374
    ],
    "unit": "degrees"
  },
  "p": {
    "angles": [
      -43.604395604395606,
      33.934065934065934,
      -1.4945054945054945,
      10.373626373626374,
      -0.26373626373626374,
      -0.26373626373626374
    ],
    "unit": "degrees"
  },
  "q": {
    "angles": [
      47.472527472527474,
      8.87912087912088,
      14.769230769230768,
      49.05494505494506,
      -0.26373626373626374,
      -0.26373626373626374
    ],
    "unit": "degrees"
  },
  "r": {
    "angles": [
      33.582417582417584,
      -5.186813186813187,
      31.032967032967033,
      49.05494505494506,
      -0.26373626373626374,
      -0.26373626373626374
    ],
    "unit": "degrees"
  },
  "s": {
    "angles": [
      13.538461538461538,
      -5.186813186813187,
      31.824175824175825,
      64.87912087912088,
      -0.7912087912087912,
      -0.26373626373626374
    ],
    "unit": "degrees"
  },
  "t": {
    "angles": [
      -8.351648351648352,
      -11.076923076923077,
      40.61538461538461,
      49.67032967032967,
      -0.8791208791208791,
      -0.26373626373626374
    ],
    "unit": "degrees"
  },
  "u": {
    "angles": [
      -29.0989010989011,
      -3.5164835164835164,
      31.560439560439562,
      49.582417582417584,
      -0.7912087912087912,
      -0.26373626373626374
    ],
    "unit": "degrees"
  },
  "v": {
    "angles": [
      -43.16483516483516,
      12.21978021978022,
      11.780219780219781,
      49.582417582417584,
      -0.3516483516483517,
      -0.26373626373626374
    ],
    "unit": "degrees"
  },
  "w": {
    "angles": [
      47.64835164835165,
      -3.7802197802197806,
      31.560439560439562,
      67.78021978021978,
      -0.7912087912087912,
      -0.17582417582417584
    ],
    "unit": "degrees"
  },
  "x": {
    "angles": [
      21.89010989010989,
      -34.02197802197802,
      60.219780219780226,
      67.25274725274726,
      -0.6153846153846154,
      -0.17582417582417584
    ],
    "unit": "degrees"
  },
  "y": {
    "angles": [
      -22.065934065934066,
      -33.934065934065934,
      60.13186813186813,
      67.25274725274726,
      -0.7032967032967034,
      -0.17582417582417584
    ],
    "unit": "degrees"
  },
  "yes": {
    "angles": [
      26.373626373626376,
      59.42857142857142,
      -43.69230769230769,
      15.648351648351648,
      -0.8791208791208791,
      -0.26373626373626374
    ],
    "unit": "degrees"
  },
  "z": {
    "angles": [
      -47.73626373626374,
      -2.5494505494505493,
      31.296703296703296,
      67.16483516483517,
      -0.7912087912087912,
      -0.17582417582417584
    ],
    "unit": "degrees"
  }
}